#pragma once
#include <cstdarg>
namespace Eloquent {
    namespace ML {
        namespace Port {
            class RandomForest {
                public:
                    /**
                    * Predict class for features vector
                    */
                    int predict(float *x) {
                        uint8_t votes[3] = { 0 };
                        // tree #1
                        if (x[101] <= -3.2949999570846558) {
                            if (x[41] <= -6.930000066757202) {
                                votes[2] += 1;
                            }

                            else {
                                if (x[106] <= 4.4049999713897705) {
                                    if (x[106] <= 2.240000009536743) {
                                        votes[2] += 1;
                                    }

                                    else {
                                        votes[0] += 1;
                                    }
                                }

                                else {
                                    votes[1] += 1;
                                }
                            }
                        }

                        else {
                            if (x[71] <= -3.350000023841858) {
                                votes[2] += 1;
                            }

                            else {
                                if (x[111] <= 0.9350000023841858) {
                                    votes[0] += 1;
                                }

                                else {
                                    votes[2] += 1;
                                }
                            }
                        }

                        // tree #2
                        if (x[89] <= -2.319999933242798) {
                            if (x[55] <= 3.694999933242798) {
                                if (x[73] <= 4.685000061988831) {
                                    votes[2] += 1;
                                }

                                else {
                                    votes[1] += 1;
                                }
                            }

                            else {
                                if (x[115] <= 3.215000092983246) {
                                    votes[2] += 1;
                                }

                                else {
                                    if (x[86] <= -11.610000133514404) {
                                        votes[2] += 1;
                                    }

                                    else {
                                        votes[1] += 1;
                                    }
                                }
                            }
                        }

                        else {
                            if (x[134] <= -2.415000081062317) {
                                votes[2] += 1;
                            }

                            else {
                                votes[0] += 1;
                            }
                        }

                        // tree #3
                        if (x[98] <= -4.244999885559082) {
                            if (x[117] <= -2.425000011920929) {
                                votes[2] += 1;
                            }

                            else {
                                if (x[126] <= -0.060000001452863216) {
                                    if (x[58] <= 7.769999980926514) {
                                        votes[1] += 1;
                                    }

                                    else {
                                        votes[2] += 1;
                                    }
                                }

                                else {
                                    votes[1] += 1;
                                }
                            }
                        }

                        else {
                            if (x[71] <= -2.7649999856948853) {
                                votes[2] += 1;
                            }

                            else {
                                if (x[122] <= -1.8049999475479126) {
                                    if (x[97] <= 3.1249999701976776) {
                                        votes[2] += 1;
                                    }

                                    else {
                                        votes[1] += 1;
                                    }
                                }

                                else {
                                    votes[0] += 1;
                                }
                            }
                        }

                        // tree #4
                        if (x[100] <= 7.9649999141693115) {
                            if (x[74] <= -3.234999895095825) {
                                if (x[0] <= 7.099999904632568) {
                                    votes[2] += 1;
                                }

                                else {
                                    votes[1] += 1;
                                }
                            }

                            else {
                                if (x[127] <= 7.68999981880188) {
                                    if (x[125] <= -3.314999967813492) {
                                        votes[2] += 1;
                                    }

                                    else {
                                        if (x[116] <= 3.6049999594688416) {
                                            votes[0] += 1;
                                        }

                                        else {
                                            votes[2] += 1;
                                        }
                                    }
                                }

                                else {
                                    votes[1] += 1;
                                }
                            }
                        }

                        else {
                            if (x[102] <= -5.4700000286102295) {
                                votes[2] += 1;
                            }

                            else {
                                votes[1] += 1;
                            }
                        }

                        // tree #5
                        if (x[128] <= -1.2899999618530273) {
                            if (x[61] <= 3.4149999618530273) {
                                votes[2] += 1;
                            }

                            else {
                                if (x[83] <= -7.954999923706055) {
                                    votes[2] += 1;
                                }

                                else {
                                    if (x[11] <= 8.455000162124634) {
                                        votes[1] += 1;
                                    }

                                    else {
                                        votes[2] += 1;
                                    }
                                }
                            }
                        }

                        else {
                            if (x[89] <= -7.6600000858306885) {
                                votes[2] += 1;
                            }

                            else {
                                votes[0] += 1;
                            }
                        }

                        // tree #6
                        if (x[134] <= -1.6100000143051147) {
                            if (x[123] <= -0.2449999935925007) {
                                if (x[21] <= 6.125) {
                                    votes[2] += 1;
                                }

                                else {
                                    votes[1] += 1;
                                }
                            }

                            else {
                                if (x[34] <= -1.5900000631809235) {
                                    votes[2] += 1;
                                }

                                else {
                                    if (x[134] <= -3.615000009536743) {
                                        votes[1] += 1;
                                    }

                                    else {
                                        votes[2] += 1;
                                    }
                                }
                            }
                        }

                        else {
                            if (x[62] <= 7.640000104904175) {
                                votes[0] += 1;
                            }

                            else {
                                votes[2] += 1;
                            }
                        }

                        // tree #7
                        if (x[125] <= -2.2049999833106995) {
                            if (x[127] <= 7.480000019073486) {
                                votes[2] += 1;
                            }

                            else {
                                if (x[14] <= 8.735000133514404) {
                                    votes[1] += 1;
                                }

                                else {
                                    votes[2] += 1;
                                }
                            }
                        }

                        else {
                            if (x[104] <= -2.0449999570846558) {
                                votes[2] += 1;
                            }

                            else {
                                votes[0] += 1;
                            }
                        }

                        // tree #8
                        if (x[86] <= -2.8499999046325684) {
                            if (x[130] <= 7.699999809265137) {
                                if (x[0] <= 7.139999866485596) {
                                    votes[2] += 1;
                                }

                                else {
                                    votes[1] += 1;
                                }
                            }

                            else {
                                votes[1] += 1;
                            }
                        }

                        else {
                            if (x[95] <= 3.2299999594688416) {
                                if (x[121] <= 6.96999979019165) {
                                    votes[0] += 1;
                                }

                                else {
                                    votes[1] += 1;
                                }
                            }

                            else {
                                votes[2] += 1;
                            }
                        }

                        // tree #9
                        if (x[122] <= -1.7550000548362732) {
                            if (x[29] <= -7.549999952316284) {
                                if (x[101] <= -6.700000047683716) {
                                    votes[1] += 1;
                                }

                                else {
                                    votes[2] += 1;
                                }
                            }

                            else {
                                if (x[101] <= -3.090000033378601) {
                                    votes[1] += 1;
                                }

                                else {
                                    votes[2] += 1;
                                }
                            }
                        }

                        else {
                            if (x[93] <= 1.1799999922513962) {
                                votes[0] += 1;
                            }

                            else {
                                votes[2] += 1;
                            }
                        }

                        // tree #10
                        if (x[112] <= 7.519999980926514) {
                            if (x[102] <= -2.549999952316284) {
                                votes[2] += 1;
                            }

                            else {
                                if (x[104] <= -2.3200000524520874) {
                                    if (x[64] <= 4.4999998807907104) {
                                        votes[2] += 1;
                                    }

                                    else {
                                        if (x[62] <= 1.375) {
                                            votes[0] += 1;
                                        }

                                        else {
                                            votes[1] += 1;
                                        }
                                    }
                                }

                                else {
                                    if (x[116] <= 4.154999911785126) {
                                        if (x[128] <= -1.8100000023841858) {
                                            if (x[13] <= 2.09000001847744) {
                                                votes[1] += 1;
                                            }

                                            else {
                                                votes[2] += 1;
                                            }
                                        }

                                        else {
                                            votes[0] += 1;
                                        }
                                    }

                                    else {
                                        votes[2] += 1;
                                    }
                                }
                            }
                        }

                        else {
                            if (x[95] <= -15.175000190734863) {
                                votes[2] += 1;
                            }

                            else {
                                votes[1] += 1;
                            }
                        }

                        // tree #11
                        if (x[128] <= -1.8100000023841858) {
                            if (x[124] <= 7.730000019073486) {
                                if (x[34] <= 3.0149999856948853) {
                                    votes[2] += 1;
                                }

                                else {
                                    if (x[121] <= 6.555000066757202) {
                                        votes[1] += 1;
                                    }

                                    else {
                                        votes[2] += 1;
                                    }
                                }
                            }

                            else {
                                votes[1] += 1;
                            }
                        }

                        else {
                            if (x[119] <= 4.095000172033906) {
                                votes[0] += 1;
                            }

                            else {
                                votes[2] += 1;
                            }
                        }

                        // tree #12
                        if (x[120] <= 0.48999999463558197) {
                            if (x[125] <= -1.4700000286102295) {
                                if (x[69] <= 4.1549999713897705) {
                                    votes[2] += 1;
                                }

                                else {
                                    votes[1] += 1;
                                }
                            }

                            else {
                                if (x[122] <= 4.144999943673611) {
                                    votes[0] += 1;
                                }

                                else {
                                    if (x[30] <= 1.190000019967556) {
                                        votes[0] += 1;
                                    }

                                    else {
                                        votes[2] += 1;
                                    }
                                }
                            }
                        }

                        else {
                            if (x[83] <= -9.555000305175781) {
                                votes[2] += 1;
                            }

                            else {
                                if (x[22] <= -0.6449999809265137) {
                                    votes[0] += 1;
                                }

                                else {
                                    votes[1] += 1;
                                }
                            }
                        }

                        // tree #13
                        if (x[115] <= 7.700000047683716) {
                            if (x[131] <= -2.1850000619888306) {
                                votes[2] += 1;
                            }

                            else {
                                if (x[80] <= -5.25) {
                                    if (x[119] <= -2.1700000166893005) {
                                        votes[1] += 1;
                                    }

                                    else {
                                        votes[2] += 1;
                                    }
                                }

                                else {
                                    votes[0] += 1;
                                }
                            }
                        }

                        else {
                            votes[1] += 1;
                        }

                        // tree #14
                        if (x[121] <= 7.5) {
                            if (x[134] <= -1.6050000190734863) {
                                votes[2] += 1;
                            }

                            else {
                                votes[0] += 1;
                            }
                        }

                        else {
                            if (x[86] <= -11.610000133514404) {
                                votes[2] += 1;
                            }

                            else {
                                votes[1] += 1;
                            }
                        }

                        // tree #15
                        if (x[121] <= 7.5) {
                            if (x[128] <= -1.199999988079071) {
                                votes[2] += 1;
                            }

                            else {
                                if (x[99] <= 1.5899999886751175) {
                                    votes[0] += 1;
                                }

                                else {
                                    votes[2] += 1;
                                }
                            }
                        }

                        else {
                            if (x[86] <= -10.980000019073486) {
                                votes[2] += 1;
                            }

                            else {
                                votes[1] += 1;
                            }
                        }

                        // tree #16
                        if (x[134] <= -1.3199999928474426) {
                            if (x[132] <= 0.6699999868869781) {
                                if (x[72] <= 6.445000171661377) {
                                    if (x[27] <= -7.104999780654907) {
                                        votes[1] += 1;
                                    }

                                    else {
                                        votes[2] += 1;
                                    }
                                }

                                else {
                                    votes[1] += 1;
                                }
                            }

                            else {
                                if (x[106] <= 2.994999945163727) {
                                    votes[2] += 1;
                                }

                                else {
                                    votes[1] += 1;
                                }
                            }
                        }

                        else {
                            if (x[95] <= -7.545000076293945) {
                                votes[2] += 1;
                            }

                            else {
                                votes[0] += 1;
                            }
                        }

                        // tree #17
                        if (x[119] <= -1.8050000071525574) {
                            if (x[101] <= -4.055000066757202) {
                                if (x[95] <= -4.065000057220459) {
                                    votes[1] += 1;
                                }

                                else {
                                    votes[2] += 1;
                                }
                            }

                            else {
                                votes[2] += 1;
                            }
                        }

                        else {
                            if (x[65] <= 0.9849999845027924) {
                                votes[0] += 1;
                            }

                            else {
                                votes[2] += 1;
                            }
                        }

                        // tree #18
                        if (x[125] <= -1.4700000286102295) {
                            if (x[121] <= 7.5) {
                                if (x[48] <= 6.179999828338623) {
                                    votes[2] += 1;
                                }

                                else {
                                    votes[1] += 1;
                                }
                            }

                            else {
                                votes[1] += 1;
                            }
                        }

                        else {
                            if (x[122] <= 4.109999943524599) {
                                votes[0] += 1;
                            }

                            else {
                                votes[2] += 1;
                            }
                        }

                        // tree #19
                        if (x[103] <= 8.09000015258789) {
                            if (x[134] <= -1.6050000190734863) {
                                if (x[75] <= 7.190000057220459) {
                                    if (x[76] <= 7.5899999141693115) {
                                        votes[2] += 1;
                                    }

                                    else {
                                        votes[1] += 1;
                                    }
                                }

                                else {
                                    votes[1] += 1;
                                }
                            }

                            else {
                                if (x[62] <= 5.4700000286102295) {
                                    votes[0] += 1;
                                }

                                else {
                                    votes[2] += 1;
                                }
                            }
                        }

                        else {
                            votes[1] += 1;
                        }

                        // tree #20
                        if (x[98] <= -4.894999980926514) {
                            if (x[127] <= 5.484999895095825) {
                                votes[2] += 1;
                            }

                            else {
                                votes[1] += 1;
                            }
                        }

                        else {
                            if (x[134] <= -1.6100000143051147) {
                                if (x[127] <= 7.954999923706055) {
                                    if (x[112] <= 7.730000019073486) {
                                        votes[2] += 1;
                                    }

                                    else {
                                        if (x[45] <= 1.8149999976158142) {
                                            votes[2] += 1;
                                        }

                                        else {
                                            votes[1] += 1;
                                        }
                                    }
                                }

                                else {
                                    votes[1] += 1;
                                }
                            }

                            else {
                                votes[0] += 1;
                            }
                        }

                        // tree #21
                        if (x[83] <= -3.825000047683716) {
                            if (x[107] <= -4.505000114440918) {
                                if (x[40] <= 0.5750000178813934) {
                                    votes[2] += 1;
                                }

                                else {
                                    votes[1] += 1;
                                }
                            }

                            else {
                                votes[2] += 1;
                            }
                        }

                        else {
                            if (x[134] <= -2.1149999499320984) {
                                if (x[78] <= 4.784999907016754) {
                                    votes[2] += 1;
                                }

                                else {
                                    votes[1] += 1;
                                }
                            }

                            else {
                                votes[0] += 1;
                            }
                        }

                        // tree #22
                        if (x[118] <= 7.599999904632568) {
                            if (x[128] <= -2.575000047683716) {
                                votes[2] += 1;
                            }

                            else {
                                if (x[71] <= 4.110000014305115) {
                                    if (x[65] <= 1.8399999886751175) {
                                        votes[0] += 1;
                                    }

                                    else {
                                        votes[1] += 1;
                                    }
                                }

                                else {
                                    if (x[3] <= -0.26000000536441803) {
                                        votes[0] += 1;
                                    }

                                    else {
                                        votes[2] += 1;
                                    }
                                }
                            }
                        }

                        else {
                            if (x[4] <= 10.309999942779541) {
                                votes[1] += 1;
                            }

                            else {
                                votes[2] += 1;
                            }
                        }

                        // tree #23
                        if (x[125] <= -1.405000001192093) {
                            if (x[70] <= 1.5699999928474426) {
                                if (x[64] <= 2.365000069141388) {
                                    votes[2] += 1;
                                }

                                else {
                                    votes[1] += 1;
                                }
                            }

                            else {
                                if (x[11] <= 8.455000162124634) {
                                    if (x[120] <= -2.6399999856948853) {
                                        votes[2] += 1;
                                    }

                                    else {
                                        votes[1] += 1;
                                    }
                                }

                                else {
                                    votes[2] += 1;
                                }
                            }
                        }

                        else {
                            if (x[114] <= -2.6100000143051147) {
                                votes[2] += 1;
                            }

                            else {
                                votes[0] += 1;
                            }
                        }

                        // tree #24
                        if (x[100] <= 7.9649999141693115) {
                            if (x[86] <= -2.8499999046325684) {
                                if (x[124] <= 7.695000171661377) {
                                    votes[2] += 1;
                                }

                                else {
                                    votes[1] += 1;
                                }
                            }

                            else {
                                if (x[65] <= -3.3249999284744263) {
                                    votes[2] += 1;
                                }

                                else {
                                    votes[0] += 1;
                                }
                            }
                        }

                        else {
                            if (x[107] <= 3.15500009059906) {
                                votes[1] += 1;
                            }

                            else {
                                votes[2] += 1;
                            }
                        }

                        // tree #25
                        if (x[125] <= -1.4700000286102295) {
                            if (x[26] <= -8.394999980926514) {
                                if (x[127] <= 8.804999828338623) {
                                    votes[2] += 1;
                                }

                                else {
                                    votes[1] += 1;
                                }
                            }

                            else {
                                if (x[92] <= 3.0849997997283936) {
                                    if (x[97] <= -1.6150001287460327) {
                                        votes[2] += 1;
                                    }

                                    else {
                                        if (x[25] <= -0.32000000681728125) {
                                            votes[2] += 1;
                                        }

                                        else {
                                            votes[1] += 1;
                                        }
                                    }
                                }

                                else {
                                    votes[2] += 1;
                                }
                            }
                        }

                        else {
                            if (x[102] <= 0.7049999833106995) {
                                votes[0] += 1;
                            }

                            else {
                                votes[2] += 1;
                            }
                        }

                        // tree #26
                        if (x[121] <= 7.5) {
                            if (x[86] <= -2.8499999046325684) {
                                if (x[30] <= -7.330000162124634) {
                                    votes[1] += 1;
                                }

                                else {
                                    votes[2] += 1;
                                }
                            }

                            else {
                                if (x[130] <= 5.6000001430511475) {
                                    votes[0] += 1;
                                }

                                else {
                                    votes[2] += 1;
                                }
                            }
                        }

                        else {
                            votes[1] += 1;
                        }

                        // tree #27
                        if (x[130] <= 7.7099997997283936) {
                            if (x[38] <= -2.2049999237060547) {
                                if (x[60] <= 6.68999981880188) {
                                    if (x[43] <= 7.244999885559082) {
                                        votes[2] += 1;
                                    }

                                    else {
                                        votes[0] += 1;
                                    }
                                }

                                else {
                                    votes[0] += 1;
                                }
                            }

                            else {
                                if (x[59] <= 1.1399999856948853) {
                                    if (x[46] <= -9.724999904632568) {
                                        votes[2] += 1;
                                    }

                                    else {
                                        votes[0] += 1;
                                    }
                                }

                                else {
                                    if (x[1] <= 6.2799999713897705) {
                                        if (x[54] <= 2.8449997901916504) {
                                            votes[0] += 1;
                                        }

                                        else {
                                            votes[1] += 1;
                                        }
                                    }

                                    else {
                                        votes[2] += 1;
                                    }
                                }
                            }
                        }

                        else {
                            if (x[107] <= -12.760000228881836) {
                                votes[2] += 1;
                            }

                            else {
                                votes[1] += 1;
                            }
                        }

                        // tree #28
                        if (x[133] <= 7.360000133514404) {
                            if (x[130] <= 5.305000066757202) {
                                if (x[72] <= 0.024999999441206455) {
                                    if (x[96] <= 2.895000070333481) {
                                        votes[0] += 1;
                                    }

                                    else {
                                        votes[2] += 1;
                                    }
                                }

                                else {
                                    if (x[49] <= 0.2850000858306885) {
                                        votes[0] += 1;
                                    }

                                    else {
                                        votes[2] += 1;
                                    }
                                }
                            }

                            else {
                                if (x[11] <= -5.764999866485596) {
                                    votes[1] += 1;
                                }

                                else {
                                    votes[2] += 1;
                                }
                            }
                        }

                        else {
                            if (x[41] <= -6.449999809265137) {
                                if (x[40] <= 6.0899999141693115) {
                                    votes[2] += 1;
                                }

                                else {
                                    votes[1] += 1;
                                }
                            }

                            else {
                                if (x[74] <= -15.674999713897705) {
                                    votes[2] += 1;
                                }

                                else {
                                    votes[1] += 1;
                                }
                            }
                        }

                        // tree #29
                        if (x[112] <= 6.565000057220459) {
                            if (x[103] <= 0.45000000298023224) {
                                votes[2] += 1;
                            }

                            else {
                                if (x[134] <= -1.6100000143051147) {
                                    votes[2] += 1;
                                }

                                else {
                                    votes[0] += 1;
                                }
                            }
                        }

                        else {
                            if (x[126] <= -0.060000001452863216) {
                                votes[2] += 1;
                            }

                            else {
                                if (x[88] <= -2.8600000739097595) {
                                    votes[2] += 1;
                                }

                                else {
                                    votes[1] += 1;
                                }
                            }
                        }

                        // tree #30
                        if (x[128] <= -1.2899999618530273) {
                            if (x[94] <= 7.900000095367432) {
                                if (x[33] <= -3.5299999117851257) {
                                    if (x[42] <= 0.034999996423721313) {
                                        votes[1] += 1;
                                    }

                                    else {
                                        votes[2] += 1;
                                    }
                                }

                                else {
                                    if (x[51] <= -8.335000038146973) {
                                        votes[1] += 1;
                                    }

                                    else {
                                        votes[2] += 1;
                                    }
                                }
                            }

                            else {
                                votes[1] += 1;
                            }
                        }

                        else {
                            if (x[89] <= -8.149999856948853) {
                                votes[2] += 1;
                            }

                            else {
                                votes[0] += 1;
                            }
                        }

                        // tree #31
                        if (x[127] <= 7.300000190734863) {
                            if (x[87] <= 0.41499999165534973) {
                                if (x[125] <= -1.4700000286102295) {
                                    if (x[57] <= 7.145000100135803) {
                                        votes[2] += 1;
                                    }

                                    else {
                                        votes[1] += 1;
                                    }
                                }

                                else {
                                    votes[0] += 1;
                                }
                            }

                            else {
                                votes[2] += 1;
                            }
                        }

                        else {
                            if (x[118] <= 6.775000095367432) {
                                votes[2] += 1;
                            }

                            else {
                                if (x[85] <= -1.0899999737739563) {
                                    votes[2] += 1;
                                }

                                else {
                                    votes[1] += 1;
                                }
                            }
                        }

                        // tree #32
                        if (x[107] <= -1.26500004529953) {
                            if (x[118] <= 7.414999961853027) {
                                if (x[43] <= 5.849999904632568) {
                                    if (x[66] <= 6.1000001430511475) {
                                        votes[2] += 1;
                                    }

                                    else {
                                        votes[1] += 1;
                                    }
                                }

                                else {
                                    votes[0] += 1;
                                }
                            }

                            else {
                                if (x[22] <= -1.0499999523162842) {
                                    votes[2] += 1;
                                }

                                else {
                                    votes[1] += 1;
                                }
                            }
                        }

                        else {
                            if (x[110] <= 0.8249999806284904) {
                                if (x[67] <= -6.724999904632568) {
                                    votes[2] += 1;
                                }

                                else {
                                    votes[0] += 1;
                                }
                            }

                            else {
                                votes[2] += 1;
                            }
                        }

                        // tree #33
                        if (x[119] <= -1.8949999809265137) {
                            if (x[121] <= 7.5249998569488525) {
                                if (x[131] <= -2.055000066757202) {
                                    votes[2] += 1;
                                }

                                else {
                                    votes[1] += 1;
                                }
                            }

                            else {
                                votes[1] += 1;
                            }
                        }

                        else {
                            if (x[113] <= 2.3650000393390656) {
                                votes[0] += 1;
                            }

                            else {
                                votes[2] += 1;
                            }
                        }

                        // tree #34
                        if (x[121] <= 7.5) {
                            if (x[129] <= -0.054999999701976776) {
                                if (x[97] <= 3.745000123977661) {
                                    if (x[86] <= -6.680000066757202) {
                                        votes[2] += 1;
                                    }

                                    else {
                                        votes[0] += 1;
                                    }
                                }

                                else {
                                    votes[2] += 1;
                                }
                            }

                            else {
                                if (x[75] <= -7.275000095367432) {
                                    votes[0] += 1;
                                }

                                else {
                                    if (x[36] <= -5.159999787807465) {
                                        votes[1] += 1;
                                    }

                                    else {
                                        votes[2] += 1;
                                    }
                                }
                            }
                        }

                        else {
                            if (x[58] <= 13.809999942779541) {
                                votes[1] += 1;
                            }

                            else {
                                votes[2] += 1;
                            }
                        }

                        // tree #35
                        if (x[125] <= -1.4700000286102295) {
                            if (x[115] <= 7.515000104904175) {
                                if (x[9] <= 6.225000023841858) {
                                    votes[2] += 1;
                                }

                                else {
                                    votes[1] += 1;
                                }
                            }

                            else {
                                if (x[132] <= -0.20499999821186066) {
                                    votes[2] += 1;
                                }

                                else {
                                    votes[1] += 1;
                                }
                            }
                        }

                        else {
                            if (x[100] <= -0.4400000013411045) {
                                votes[2] += 1;
                            }

                            else {
                                votes[0] += 1;
                            }
                        }

                        // tree #36
                        if (x[122] <= -1.7550000548362732) {
                            if (x[115] <= 7.694999933242798) {
                                if (x[3] <= -6.800000190734863) {
                                    votes[1] += 1;
                                }

                                else {
                                    if (x[36] <= -5.199999809265137) {
                                        votes[1] += 1;
                                    }

                                    else {
                                        votes[2] += 1;
                                    }
                                }
                            }

                            else {
                                votes[1] += 1;
                            }
                        }

                        else {
                            if (x[116] <= 4.82500022649765) {
                                votes[0] += 1;
                            }

                            else {
                                votes[2] += 1;
                            }
                        }

                        // tree #37
                        if (x[128] <= -1.5849999785423279) {
                            if (x[25] <= 2.2949999570846558) {
                                if (x[69] <= 4.519999980926514) {
                                    votes[2] += 1;
                                }

                                else {
                                    votes[1] += 1;
                                }
                            }

                            else {
                                if (x[112] <= 1.9950000047683716) {
                                    votes[2] += 1;
                                }

                                else {
                                    votes[1] += 1;
                                }
                            }
                        }

                        else {
                            if (x[87] <= 1.0999999791383743) {
                                votes[0] += 1;
                            }

                            else {
                                votes[2] += 1;
                            }
                        }

                        // tree #38
                        if (x[131] <= -1.8350000381469727) {
                            if (x[130] <= 7.9649999141693115) {
                                if (x[0] <= 7.099999904632568) {
                                    votes[2] += 1;
                                }

                                else {
                                    votes[1] += 1;
                                }
                            }

                            else {
                                votes[1] += 1;
                            }
                        }

                        else {
                            votes[0] += 1;
                        }

                        // tree #39
                        if (x[134] <= -1.6050000190734863) {
                            if (x[124] <= 7.505000114440918) {
                                if (x[21] <= -1.7499999701976776) {
                                    if (x[129] <= 0.8050000071525574) {
                                        votes[1] += 1;
                                    }

                                    else {
                                        votes[2] += 1;
                                    }
                                }

                                else {
                                    votes[2] += 1;
                                }
                            }

                            else {
                                votes[1] += 1;
                            }
                        }

                        else {
                            if (x[83] <= -6.1650002002716064) {
                                votes[2] += 1;
                            }

                            else {
                                votes[0] += 1;
                            }
                        }

                        // tree #40
                        if (x[104] <= -2.3550000190734863) {
                            if (x[97] <= 7.5299999713897705) {
                                if (x[81] <= 0.23499999940395355) {
                                    votes[2] += 1;
                                }

                                else {
                                    if (x[94] <= 5.480000019073486) {
                                        votes[1] += 1;
                                    }

                                    else {
                                        votes[0] += 1;
                                    }
                                }
                            }

                            else {
                                votes[1] += 1;
                            }
                        }

                        else {
                            if (x[109] <= 0.25999999791383743) {
                                votes[2] += 1;
                            }

                            else {
                                if (x[89] <= -3.4000000953674316) {
                                    votes[2] += 1;
                                }

                                else {
                                    votes[0] += 1;
                                }
                            }
                        }

                        // tree #41
                        if (x[107] <= -4.505000114440918) {
                            if (x[95] <= 2.8950001001358032) {
                                if (x[121] <= -4.700000047683716) {
                                    votes[0] += 1;
                                }

                                else {
                                    votes[1] += 1;
                                }
                            }

                            else {
                                votes[2] += 1;
                            }
                        }

                        else {
                            if (x[56] <= 3.774999976158142) {
                                if (x[131] <= -2.1949999928474426) {
                                    if (x[78] <= -0.5099999904632568) {
                                        votes[2] += 1;
                                    }

                                    else {
                                        votes[1] += 1;
                                    }
                                }

                                else {
                                    votes[0] += 1;
                                }
                            }

                            else {
                                if (x[60] <= 5.0899999141693115) {
                                    votes[2] += 1;
                                }

                                else {
                                    if (x[63] <= 7.375000238418579) {
                                        votes[0] += 1;
                                    }

                                    else {
                                        votes[1] += 1;
                                    }
                                }
                            }
                        }

                        // tree #42
                        if (x[121] <= 7.5249998569488525) {
                            if (x[89] <= -3.870000123977661) {
                                votes[2] += 1;
                            }

                            else {
                                if (x[98] <= 0.6200000196695328) {
                                    if (x[122] <= -2.5799999237060547) {
                                        votes[2] += 1;
                                    }

                                    else {
                                        votes[0] += 1;
                                    }
                                }

                                else {
                                    votes[2] += 1;
                                }
                            }
                        }

                        else {
                            if (x[129] <= -0.6099999845027924) {
                                votes[2] += 1;
                            }

                            else {
                                votes[1] += 1;
                            }
                        }

                        // tree #43
                        if (x[115] <= 7.945000171661377) {
                            if (x[74] <= -3.234999895095825) {
                                if (x[29] <= -3.130000114440918) {
                                    votes[2] += 1;
                                }

                                else {
                                    votes[1] += 1;
                                }
                            }

                            else {
                                if (x[53] <= -6.0299999713897705) {
                                    if (x[129] <= 0.4400000125169754) {
                                        votes[2] += 1;
                                    }

                                    else {
                                        votes[1] += 1;
                                    }
                                }

                                else {
                                    if (x[99] <= 1.5899999886751175) {
                                        votes[0] += 1;
                                    }

                                    else {
                                        votes[2] += 1;
                                    }
                                }
                            }
                        }

                        else {
                            votes[1] += 1;
                        }

                        // tree #44
                        if (x[127] <= 7.200000047683716) {
                            if (x[77] <= -3.9250000715255737) {
                                votes[2] += 1;
                            }

                            else {
                                if (x[109] <= 0.5999999940395355) {
                                    if (x[61] <= 5.40500009059906) {
                                        votes[2] += 1;
                                    }

                                    else {
                                        votes[0] += 1;
                                    }
                                }

                                else {
                                    if (x[96] <= 0.7850000262260437) {
                                        votes[0] += 1;
                                    }

                                    else {
                                        votes[2] += 1;
                                    }
                                }
                            }
                        }

                        else {
                            if (x[22] <= -1.0499999523162842) {
                                votes[2] += 1;
                            }

                            else {
                                if (x[75] <= -0.6599999964237213) {
                                    if (x[76] <= 4.470000118017197) {
                                        votes[2] += 1;
                                    }

                                    else {
                                        votes[1] += 1;
                                    }
                                }

                                else {
                                    votes[1] += 1;
                                }
                            }
                        }

                        // tree #45
                        if (x[119] <= -1.5149999856948853) {
                            if (x[104] <= -4.184999942779541) {
                                if (x[97] <= 7.414999961853027) {
                                    if (x[122] <= -3.619999885559082) {
                                        votes[2] += 1;
                                    }

                                    else {
                                        if (x[49] <= 5.979999899864197) {
                                            votes[1] += 1;
                                        }

                                        else {
                                            votes[0] += 1;
                                        }
                                    }
                                }

                                else {
                                    votes[1] += 1;
                                }
                            }

                            else {
                                if (x[99] <= -0.23500000406056643) {
                                    votes[2] += 1;
                                }

                                else {
                                    votes[1] += 1;
                                }
                            }
                        }

                        else {
                            if (x[108] <= 0.4099999964237213) {
                                if (x[93] <= 1.165000006556511) {
                                    votes[0] += 1;
                                }

                                else {
                                    votes[2] += 1;
                                }
                            }

                            else {
                                votes[2] += 1;
                            }
                        }

                        // tree #46
                        if (x[125] <= -1.3899999856948853) {
                            if (x[97] <= 7.5299999713897705) {
                                if (x[15] <= 5.460000038146973) {
                                    if (x[14] <= -8.585000038146973) {
                                        votes[1] += 1;
                                    }

                                    else {
                                        votes[2] += 1;
                                    }
                                }

                                else {
                                    votes[1] += 1;
                                }
                            }

                            else {
                                if (x[14] <= 8.735000133514404) {
                                    votes[1] += 1;
                                }

                                else {
                                    votes[2] += 1;
                                }
                            }
                        }

                        else {
                            if (x[102] <= 0.7199999988079071) {
                                votes[0] += 1;
                            }

                            else {
                                votes[2] += 1;
                            }
                        }

                        // tree #47
                        if (x[89] <= -2.4549999237060547) {
                            if (x[115] <= 7.515000104904175) {
                                if (x[19] <= 9.190000057220459) {
                                    votes[2] += 1;
                                }

                                else {
                                    votes[1] += 1;
                                }
                            }

                            else {
                                if (x[82] <= -1.6699999570846558) {
                                    votes[2] += 1;
                                }

                                else {
                                    votes[1] += 1;
                                }
                            }
                        }

                        else {
                            if (x[113] <= -1.0150000154972076) {
                                votes[2] += 1;
                            }

                            else {
                                votes[0] += 1;
                            }
                        }

                        // tree #48
                        if (x[112] <= 7.669999837875366) {
                            if (x[71] <= -2.7450000047683716) {
                                if (x[66] <= -6.134999752044678) {
                                    votes[0] += 1;
                                }

                                else {
                                    votes[2] += 1;
                                }
                            }

                            else {
                                if (x[101] <= -2.89000004529953) {
                                    if (x[92] <= -4.850000023841858) {
                                        votes[2] += 1;
                                    }

                                    else {
                                        votes[1] += 1;
                                    }
                                }

                                else {
                                    if (x[134] <= -1.965000033378601) {
                                        if (x[112] <= 1.5049999952316284) {
                                            votes[2] += 1;
                                        }

                                        else {
                                            votes[1] += 1;
                                        }
                                    }

                                    else {
                                        votes[0] += 1;
                                    }
                                }
                            }
                        }

                        else {
                            votes[1] += 1;
                        }

                        // tree #49
                        if (x[131] <= -1.5600000023841858) {
                            if (x[100] <= 7.755000114440918) {
                                if (x[12] <= 4.150000095367432) {
                                    if (x[133] <= 7.909999847412109) {
                                        votes[2] += 1;
                                    }

                                    else {
                                        votes[1] += 1;
                                    }
                                }

                                else {
                                    votes[1] += 1;
                                }
                            }

                            else {
                                if (x[121] <= 3.199999988079071) {
                                    votes[2] += 1;
                                }

                                else {
                                    votes[1] += 1;
                                }
                            }
                        }

                        else {
                            if (x[126] <= -2.5950000286102295) {
                                votes[2] += 1;
                            }

                            else {
                                if (x[93] <= 1.1650000214576721) {
                                    votes[0] += 1;
                                }

                                else {
                                    votes[2] += 1;
                                }
                            }
                        }

                        // tree #50
                        if (x[131] <= -1.0600000023841858) {
                            if (x[124] <= 7.885000228881836) {
                                if (x[12] <= 3.6700000762939453) {
                                    votes[2] += 1;
                                }

                                else {
                                    if (x[42] <= 2.8150001019239426) {
                                        votes[1] += 1;
                                    }

                                    else {
                                        votes[2] += 1;
                                    }
                                }
                            }

                            else {
                                votes[1] += 1;
                            }
                        }

                        else {
                            if (x[106] <= 0.554999977350235) {
                                if (x[86] <= -5.490000128746033) {
                                    votes[2] += 1;
                                }

                                else {
                                    votes[0] += 1;
                                }
                            }

                            else {
                                votes[0] += 1;
                            }
                        }

                        // tree #51
                        if (x[127] <= 7.490000009536743) {
                            if (x[59] <= 4.620000123977661) {
                                if (x[47] <= -3.315000057220459) {
                                    votes[2] += 1;
                                }

                                else {
                                    if (x[109] <= 4.294999957084656) {
                                        if (x[111] <= 0.7849999964237213) {
                                            votes[0] += 1;
                                        }

                                        else {
                                            votes[2] += 1;
                                        }
                                    }

                                    else {
                                        if (x[59] <= -5.670000195503235) {
                                            votes[2] += 1;
                                        }

                                        else {
                                            votes[1] += 1;
                                        }
                                    }
                                }
                            }

                            else {
                                if (x[84] <= -2.784999966621399) {
                                    votes[0] += 1;
                                }

                                else {
                                    votes[2] += 1;
                                }
                            }
                        }

                        else {
                            votes[1] += 1;
                        }

                        // tree #52
                        if (x[131] <= -1.7950000166893005) {
                            if (x[124] <= 7.789999961853027) {
                                if (x[91] <= 7.9649999141693115) {
                                    votes[2] += 1;
                                }

                                else {
                                    votes[1] += 1;
                                }
                            }

                            else {
                                votes[1] += 1;
                            }
                        }

                        else {
                            if (x[130] <= -2.7199999392032623) {
                                votes[2] += 1;
                            }

                            else {
                                if (x[121] <= 4.495000123977661) {
                                    votes[0] += 1;
                                }

                                else {
                                    votes[2] += 1;
                                }
                            }
                        }

                        // tree #53
                        if (x[9] <= 4.625) {
                            if (x[121] <= 7.485000133514404) {
                                if (x[92] <= -2.725000023841858) {
                                    votes[2] += 1;
                                }

                                else {
                                    if (x[116] <= -2.474999964237213) {
                                        votes[2] += 1;
                                    }

                                    else {
                                        votes[0] += 1;
                                    }
                                }
                            }

                            else {
                                votes[1] += 1;
                            }
                        }

                        else {
                            votes[1] += 1;
                        }

                        // tree #54
                        if (x[130] <= 3.965000033378601) {
                            if (x[83] <= -2.5) {
                                votes[2] += 1;
                            }

                            else {
                                if (x[67] <= 6.170000195503235) {
                                    votes[0] += 1;
                                }

                                else {
                                    votes[2] += 1;
                                }
                            }
                        }

                        else {
                            if (x[126] <= -0.3050000071525574) {
                                votes[2] += 1;
                            }

                            else {
                                if (x[8] <= 8.460000038146973) {
                                    votes[1] += 1;
                                }

                                else {
                                    votes[2] += 1;
                                }
                            }
                        }

                        // tree #55
                        if (x[98] <= 0.7100000083446503) {
                            if (x[130] <= 7.190000057220459) {
                                if (x[95] <= -1.4649999737739563) {
                                    if (x[115] <= -5.774999737739563) {
                                        votes[0] += 1;
                                    }

                                    else {
                                        votes[2] += 1;
                                    }
                                }

                                else {
                                    if (x[89] <= -2.9699999690055847) {
                                        votes[1] += 1;
                                    }

                                    else {
                                        votes[0] += 1;
                                    }
                                }
                            }

                            else {
                                votes[1] += 1;
                            }
                        }

                        else {
                            votes[2] += 1;
                        }

                        // tree #56
                        if (x[130] <= 7.9649999141693115) {
                            if (x[92] <= -1.8699999451637268) {
                                if (x[8] <= -2.6600000858306885) {
                                    votes[1] += 1;
                                }

                                else {
                                    votes[2] += 1;
                                }
                            }

                            else {
                                if (x[106] <= -0.24500000290572643) {
                                    votes[2] += 1;
                                }

                                else {
                                    votes[0] += 1;
                                }
                            }
                        }

                        else {
                            if (x[97] <= -2.7450000047683716) {
                                votes[2] += 1;
                            }

                            else {
                                votes[1] += 1;
                            }
                        }

                        // tree #57
                        if (x[134] <= -1.6050000190734863) {
                            if (x[97] <= 7.8399999141693115) {
                                if (x[33] <= -1.7450000047683716) {
                                    if (x[39] <= 2.640000104904175) {
                                        votes[1] += 1;
                                    }

                                    else {
                                        votes[2] += 1;
                                    }
                                }

                                else {
                                    if (x[118] <= 8.09000015258789) {
                                        votes[2] += 1;
                                    }

                                    else {
                                        votes[1] += 1;
                                    }
                                }
                            }

                            else {
                                votes[1] += 1;
                            }
                        }

                        else {
                            if (x[95] <= -6.245000004768372) {
                                votes[2] += 1;
                            }

                            else {
                                votes[0] += 1;
                            }
                        }

                        // tree #58
                        if (x[101] <= -1.8849999904632568) {
                            if (x[111] <= -0.35499998927116394) {
                                if (x[81] <= 5.874999940395355) {
                                    if (x[129] <= 8.509999811649323) {
                                        votes[2] += 1;
                                    }

                                    else {
                                        votes[0] += 1;
                                    }
                                }

                                else {
                                    votes[1] += 1;
                                }
                            }

                            else {
                                votes[1] += 1;
                            }
                        }

                        else {
                            if (x[74] <= -4.494999885559082) {
                                votes[2] += 1;
                            }

                            else {
                                if (x[80] <= 0.9999999701976776) {
                                    votes[0] += 1;
                                }

                                else {
                                    votes[2] += 1;
                                }
                            }
                        }

                        // tree #59
                        if (x[131] <= -1.8350000381469727) {
                            if (x[104] <= -4.184999942779541) {
                                if (x[86] <= 5.045000120997429) {
                                    if (x[28] <= -0.9799999892711639) {
                                        votes[2] += 1;
                                    }

                                    else {
                                        votes[1] += 1;
                                    }
                                }

                                else {
                                    votes[2] += 1;
                                }
                            }

                            else {
                                if (x[60] <= 6.68999981880188) {
                                    votes[2] += 1;
                                }

                                else {
                                    votes[1] += 1;
                                }
                            }
                        }

                        else {
                            if (x[102] <= 1.9800000190734863) {
                                votes[0] += 1;
                            }

                            else {
                                votes[2] += 1;
                            }
                        }

                        // tree #60
                        if (x[128] <= -1.2899999618530273) {
                            if (x[115] <= 7.694999933242798) {
                                if (x[121] <= 7.5) {
                                    votes[2] += 1;
                                }

                                else {
                                    votes[1] += 1;
                                }
                            }

                            else {
                                votes[1] += 1;
                            }
                        }

                        else {
                            if (x[119] <= 4.235000178217888) {
                                votes[0] += 1;
                            }

                            else {
                                votes[2] += 1;
                            }
                        }

                        // tree #61
                        if (x[130] <= 7.440000057220459) {
                            if (x[134] <= -1.3499999940395355) {
                                votes[2] += 1;
                            }

                            else {
                                if (x[102] <= 0.9199999570846558) {
                                    votes[0] += 1;
                                }

                                else {
                                    votes[2] += 1;
                                }
                            }
                        }

                        else {
                            if (x[95] <= -4.0) {
                                votes[1] += 1;
                            }

                            else {
                                votes[2] += 1;
                            }
                        }

                        // tree #62
                        if (x[121] <= 7.5249998569488525) {
                            if (x[130] <= 5.305000066757202) {
                                if (x[92] <= -1.6650000214576721) {
                                    if (x[30] <= 0.6499999761581421) {
                                        votes[0] += 1;
                                    }

                                    else {
                                        votes[2] += 1;
                                    }
                                }

                                else {
                                    votes[0] += 1;
                                }
                            }

                            else {
                                if (x[72] <= 6.445000171661377) {
                                    votes[2] += 1;
                                }

                                else {
                                    votes[1] += 1;
                                }
                            }
                        }

                        else {
                            if (x[8] <= 7.695000171661377) {
                                votes[1] += 1;
                            }

                            else {
                                votes[2] += 1;
                            }
                        }

                        // tree #63
                        if (x[100] <= 5.329999923706055) {
                            if (x[106] <= 0.554999977350235) {
                                if (x[48] <= -11.385000467300415) {
                                    votes[0] += 1;
                                }

                                else {
                                    votes[2] += 1;
                                }
                            }

                            else {
                                if (x[87] <= 0.3799999915063381) {
                                    votes[0] += 1;
                                }

                                else {
                                    if (x[60] <= -6.385000228881836) {
                                        votes[1] += 1;
                                    }

                                    else {
                                        votes[2] += 1;
                                    }
                                }
                            }
                        }

                        else {
                            if (x[115] <= 7.945000171661377) {
                                if (x[12] <= 5.819999933242798) {
                                    votes[2] += 1;
                                }

                                else {
                                    votes[1] += 1;
                                }
                            }

                            else {
                                votes[1] += 1;
                            }
                        }

                        // tree #64
                        if (x[116] <= -1.7149999737739563) {
                            if (x[118] <= 7.914999961853027) {
                                if (x[134] <= -2.490000009536743) {
                                    if (x[81] <= 7.514999866485596) {
                                        votes[2] += 1;
                                    }

                                    else {
                                        votes[1] += 1;
                                    }
                                }

                                else {
                                    if (x[9] <= 4.22500005364418) {
                                        votes[0] += 1;
                                    }

                                    else {
                                        votes[1] += 1;
                                    }
                                }
                            }

                            else {
                                votes[1] += 1;
                            }
                        }

                        else {
                            if (x[92] <= -2.725000023841858) {
                                votes[2] += 1;
                            }

                            else {
                                votes[0] += 1;
                            }
                        }

                        // tree #65
                        if (x[95] <= -2.465000033378601) {
                            if (x[111] <= -0.35499998927116394) {
                                if (x[114] <= -0.3500000089406967) {
                                    votes[2] += 1;
                                }

                                else {
                                    votes[1] += 1;
                                }
                            }

                            else {
                                if (x[61] <= 0.02499997615814209) {
                                    votes[2] += 1;
                                }

                                else {
                                    votes[1] += 1;
                                }
                            }
                        }

                        else {
                            if (x[99] <= -1.9049999713897705) {
                                votes[2] += 1;
                            }

                            else {
                                if (x[134] <= -2.1149999499320984) {
                                    votes[2] += 1;
                                }

                                else {
                                    votes[0] += 1;
                                }
                            }
                        }

                        // tree #66
                        if (x[130] <= 7.504999876022339) {
                            if (x[125] <= -1.8199999928474426) {
                                votes[2] += 1;
                            }

                            else {
                                if (x[89] <= -3.309999942779541) {
                                    if (x[85] <= 2.185000002384186) {
                                        votes[2] += 1;
                                    }

                                    else {
                                        votes[1] += 1;
                                    }
                                }

                                else {
                                    votes[0] += 1;
                                }
                            }
                        }

                        else {
                            if (x[114] <= -2.25) {
                                votes[2] += 1;
                            }

                            else {
                                votes[1] += 1;
                            }
                        }

                        // tree #67
                        if (x[125] <= -1.4700000286102295) {
                            if (x[115] <= 7.694999933242798) {
                                if (x[36] <= 4.855000019073486) {
                                    if (x[14] <= -8.585000038146973) {
                                        votes[1] += 1;
                                    }

                                    else {
                                        votes[2] += 1;
                                    }
                                }

                                else {
                                    votes[1] += 1;
                                }
                            }

                            else {
                                if (x[121] <= 7.920000076293945) {
                                    votes[2] += 1;
                                }

                                else {
                                    votes[1] += 1;
                                }
                            }
                        }

                        else {
                            if (x[68] <= 5.380000114440918) {
                                votes[0] += 1;
                            }

                            else {
                                votes[2] += 1;
                            }
                        }

                        // tree #68
                        if (x[128] <= -1.2899999618530273) {
                            if (x[133] <= 8.085000038146973) {
                                if (x[118] <= 7.599999904632568) {
                                    if (x[60] <= -10.144999980926514) {
                                        votes[1] += 1;
                                    }

                                    else {
                                        votes[2] += 1;
                                    }
                                }

                                else {
                                    votes[1] += 1;
                                }
                            }

                            else {
                                votes[1] += 1;
                            }
                        }

                        else {
                            if (x[59] <= 9.555000305175781) {
                                votes[0] += 1;
                            }

                            else {
                                votes[2] += 1;
                            }
                        }

                        // tree #69
                        if (x[115] <= 7.945000171661377) {
                            if (x[122] <= -1.6349999904632568) {
                                if (x[36] <= -5.199999809265137) {
                                    votes[1] += 1;
                                }

                                else {
                                    if (x[63] <= -6.384999871253967) {
                                        votes[1] += 1;
                                    }

                                    else {
                                        votes[2] += 1;
                                    }
                                }
                            }

                            else {
                                if (x[119] <= 4.235000178217888) {
                                    votes[0] += 1;
                                }

                                else {
                                    votes[2] += 1;
                                }
                            }
                        }

                        else {
                            votes[1] += 1;
                        }

                        // tree #70
                        if (x[89] <= -2.319999933242798) {
                            if (x[25] <= 2.465000033378601) {
                                votes[2] += 1;
                            }

                            else {
                                if (x[92] <= -10.730000019073486) {
                                    votes[2] += 1;
                                }

                                else {
                                    votes[1] += 1;
                                }
                            }
                        }

                        else {
                            if (x[119] <= -3.9600000381469727) {
                                votes[2] += 1;
                            }

                            else {
                                votes[0] += 1;
                            }
                        }

                        // tree #71
                        if (x[98] <= -2.265000104904175) {
                            if (x[116] <= -3.909999966621399) {
                                if (x[123] <= -0.2699999948963523) {
                                    if (x[73] <= 3.2300000190734863) {
                                        votes[1] += 1;
                                    }

                                    else {
                                        votes[2] += 1;
                                    }
                                }

                                else {
                                    if (x[121] <= -4.675000190734863) {
                                        votes[0] += 1;
                                    }

                                    else {
                                        votes[1] += 1;
                                    }
                                }
                            }

                            else {
                                votes[2] += 1;
                            }
                        }

                        else {
                            if (x[104] <= 1.1900000479072332) {
                                if (x[102] <= 1.4149999469518661) {
                                    votes[0] += 1;
                                }

                                else {
                                    votes[2] += 1;
                                }
                            }

                            else {
                                votes[2] += 1;
                            }
                        }

                        // tree #72
                        if (x[104] <= -2.1649999618530273) {
                            if (x[134] <= -4.0000001192092896) {
                                if (x[111] <= -4.304999947547913) {
                                    votes[2] += 1;
                                }

                                else {
                                    votes[1] += 1;
                                }
                            }

                            else {
                                if (x[72] <= 5.605000138282776) {
                                    votes[2] += 1;
                                }

                                else {
                                    votes[1] += 1;
                                }
                            }
                        }

                        else {
                            if (x[104] <= 1.4900000393390656) {
                                if (x[130] <= 5.355000019073486) {
                                    votes[0] += 1;
                                }

                                else {
                                    votes[1] += 1;
                                }
                            }

                            else {
                                votes[2] += 1;
                            }
                        }

                        // tree #73
                        if (x[131] <= -1.0600000023841858) {
                            if (x[67] <= 1.6150000095367432) {
                                if (x[31] <= 2.3050000071525574) {
                                    votes[2] += 1;
                                }

                                else {
                                    votes[1] += 1;
                                }
                            }

                            else {
                                if (x[104] <= -4.184999942779541) {
                                    if (x[91] <= -0.8049999736249447) {
                                        votes[2] += 1;
                                    }

                                    else {
                                        votes[1] += 1;
                                    }
                                }

                                else {
                                    votes[2] += 1;
                                }
                            }
                        }

                        else {
                            if (x[98] <= -7.004999876022339) {
                                votes[2] += 1;
                            }

                            else {
                                votes[0] += 1;
                            }
                        }

                        // tree #74
                        if (x[128] <= -1.2899999618530273) {
                            if (x[126] <= 0.6299999952316284) {
                                if (x[21] <= 7.0950000286102295) {
                                    if (x[52] <= 13.069999694824219) {
                                        votes[2] += 1;
                                    }

                                    else {
                                        votes[0] += 1;
                                    }
                                }

                                else {
                                    votes[1] += 1;
                                }
                            }

                            else {
                                if (x[109] <= 9.96999979019165) {
                                    votes[1] += 1;
                                }

                                else {
                                    votes[2] += 1;
                                }
                            }
                        }

                        else {
                            if (x[98] <= -8.125) {
                                votes[2] += 1;
                            }

                            else {
                                votes[0] += 1;
                            }
                        }

                        // tree #75
                        if (x[128] <= -1.5849999785423279) {
                            if (x[15] <= 3.6399999856948853) {
                                if (x[133] <= 8.025000095367432) {
                                    if (x[87] <= -3.480000138282776) {
                                        if (x[15] <= -1.559999942779541) {
                                            votes[2] += 1;
                                        }

                                        else {
                                            votes[1] += 1;
                                        }
                                    }

                                    else {
                                        votes[2] += 1;
                                    }
                                }

                                else {
                                    if (x[19] <= 4.950000047683716) {
                                        votes[2] += 1;
                                    }

                                    else {
